svm_type c_svc
kernel_type linear
nr_class 7
total_sv 21
rho 0.007274975677549311 0.08443740477561629 0.08517190488162774 0.6736077175561385 0.5302047364050919 0.46805786571209934 0.07627136079785024 0.5027269035515766 0.7563181992234144 0.25282636342698134 0.9860422931079068 0.2836437586379531 2.384640580214759 0.16101915471123238 0.15260853558641505 1.7441904544637983 0.024023988576629064 -0.0861005949374798 -1.3859123830682119 -1.1752820010750795 0.12209235340734989
label 1 2 3 4 5 6 7
nr_sv 1 1 1 3 10 3 2
SV
0.1272889794852593 0.10287186440145864 0.14081055516807578 0.22188407761432039 0.2697774646357289 0.2734641491880635 1:-1.0 2:1.0 3:0.11111111111111116 4:-0.9139784946236559 5:-0.8556701030927836 6:-0.8695652173913043 7:-0.6666666666666667 8:-0.8924731182795699 9:1.0 10:1.0 11:1.0 12:1.0 13:1.0 14:1.0 
-0.1272889794852593 0.09987757430433906 0.20370380856978113 0.23984862392411221 0.17462650419098813 0.5640005104017459 1:1.0 2:0.11111111111111116 3:-0.2222222222222222 4:1.0 5:1.0 6:-0.8043478260869565 7:-1.0 8:-0.978494623655914 9:-0.8924731182795699 10:1.0 11:1.0 12:1.0 13:1.0 14:1.0 
-0.10287186440145864 -0.09987757430433906 1.7320064229624732 0.7014739523319122 0.1420996993991559 0.15292380046399145 1:1.0 2:0.5555555555555556 3:0.22222222222222232 4:-0.956989247311828 5:-0.8969072164948454 6:-0.9130434782608696 7:0.33333333333333326 8:-0.8709677419354839 9:-0.956989247311828 10:-0.8969072164948454 11:-0.7446808510638299 12:-0.9375 13:1.0 14:1.0 
-0.0033107481882386014 -0.08620183097175751 -0.03203262070960537 0.30871948020437134 0.016653739605991175 0.08969709997127236 1:1.0 2:-1.0 3:0.4444444444444444 4:1.0 5:1.0 6:-0.8043478260869565 7:0.7777777777777777 8:-0.7634408602150538 9:-0.7849462365591398 10:-0.9381443298969072 11:1.0 12:-0.7916666666666666 13:-1.0 14:1.0 
-0.13678700439505428 -0.11750197759802355 -0.08363322164584701 0.12980897938885094 0.12529533869763657 0.2405018179523492 1:1.0 2:0.11111111111111116 3:-1.0 4:-0.8064516129032258 5:-0.9175257731958762 6:-0.8695652173913043 7:0.4444444444444444 8:-0.935483870967742 9:-0.8709677419354839 10:1.0 11:1.0 12:-0.8541666666666666 13:1.0 14:1.0 
-7.128025847828802E-4 -0.0 -1.616340580607021 0.6006079620238556 0.029847774848735437 0.0 1:1.0 2:-0.11111111111111116 3:-0.5555555555555556 4:-0.935483870967742 5:-0.8556701030927836 6:-0.8260869565217391 7:0.5555555555555556 8:-0.935483870967742 9:-0.8924731182795699 10:-0.979381443298969 11:-0.9787234042553191 12:-0.8541666666666666 13:1.0 14:1.0 
-0.03775133596576611 -0.1435457563657274 -0.14450452847308418 -0.39196841515723063 0.0 0.4002224433333213 1:1.0 2:-0.33333333333333337 3:0.33333333333333326 4:-0.8494623655913979 5:1.0 6:-0.9347826086956522 7:0.4444444444444444 8:-0.956989247311828 9:-0.9139784946236559 10:-1.0 11:1.0 12:1.0 13:1.0 14:1.0 
-0.0 -0.0 -0.25483355113797945 -0.20564756012233382 0.0 0.0 1:1.0 2:-0.11111111111111116 3:-0.33333333333333337 4:-0.8709677419354839 5:-0.8762886597938144 6:1.0 7:0.4444444444444444 8:-0.8279569892473118 9:-1.0 10:-0.979381443298969 11:-0.9787234042553191 12:-1.0 13:1.0 14:-0.8969072164948454 
-0.0 -0.028377408613487996 -0.0 -0.0 0.2900365313564513 0.07086876272927747 1:1.0 2:-0.7777777777777778 3:0.5555555555555556 4:-1.0 5:1.0 6:1.0 7:0.33333333333333326 8:-0.8709677419354839 9:1.0 10:1.0 11:-0.8723404255319149 12:1.0 13:1.0 14:1.0 
-0.013152804291616743 -0.0029000018548170203 -0.0 -0.0 0.07556739384397097 0.0 1:1.0 2:0.33333333333333326 3:-0.11111111111111116 4:1.0 5:-0.8969072164948454 6:-0.9130434782608696 7:1.0 8:-0.8494623655913979 9:1.0 10:-0.979381443298969 11:1.0 12:-0.8541666666666666 13:1.0 14:-0.9381443298969072 
-0.0 -0.0 -0.0 -0.1851030663587182 0.0 0.0 1:1.0 2:-0.5555555555555556 4:1.0 5:-0.8762886597938144 6:-1.0 7:0.4444444444444444 8:-1.0 9:1.0 10:-1.0 11:-0.9148936170212766 12:-0.9583333333333334 13:1.0 14:-0.979381443298969 
-0.0359078430061142 -0.021354650174041877 -0.0 -0.0 0.21655606816702636 0.0556260899351296 1:1.0 2:-1.0 3:-0.5555555555555556 4:-0.9139784946236559 5:-1.0 6:-0.9347826086956522 7:0.11111111111111116 8:1.0 9:1.0 10:1.0 11:1.0 12:1.0 13:1.0 14:-0.9587628865979382 
-0.1186985990287429 -0.0 -0.0 -0.0 0.2851775135641258 0.10924361893629134 1:1.0 2:-0.11111111111111116 3:-0.4444444444444444 4:-0.956989247311828 5:-0.8556701030927836 6:-0.9347826086956522 7:0.4444444444444444 8:-0.9139784946236559 9:1.0 10:1.0 11:-0.9787234042553191 12:1.0 13:1.0 14:1.0 
-0.0 -0.01903560449173944 -0.11401922927454629 -0.042030253185790796 0.0 0.0 1:1.0 2:0.33333333333333326 3:-0.33333333333333337 4:1.0 5:-0.8556701030927836 6:-0.9565217391304348 7:0.8888888888888888 8:-0.8709677419354839 9:1.0 10:-0.9381443298969072 11:-1.0 12:1.0 13:1.0 14:1.0 
-0.0 -0.0 -0.0 -0.0 0.09751211555185121 0.0 1:1.0 2:0.11111111111111116 3:-0.2222222222222222 4:-0.8494623655913979 5:-0.8350515463917526 6:1.0 7:0.5555555555555556 8:-0.8924731182795699 9:-0.935483870967742 10:-0.9175257731958762 11:-0.8723404255319149 12:1.0 13:1.0 14:-0.8762886597938144 
-0.016373495322080427 -0.0246352024242985 -0.18811664344630227 -0.2143871267930044 0.047794378140460406 0.08205080347318364 1:1.0 2:1.0 3:0.8888888888888888 4:-0.9139784946236559 5:-0.6907216494845361 6:-0.8478260869565217 7:-0.11111111111111116 8:1.0 9:-0.8494623655913979 10:1.0 11:-0.851063829787234 12:-0.875 13:-1.0 14:1.0 
-0.05508268651017247 -0.0 -0.08652101489286047 -0.05161302033307062 -0.5378483065636686 0.002529327924179644 1:1.0 2:0.33333333333333326 3:0.6666666666666667 4:-0.9139784946236559 5:-0.731958762886598 6:-0.8260869565217391 7:-0.4444444444444444 8:-0.8064516129032258 9:1.0 10:1.0 11:-0.9787234042553191 12:1.0 13:1.0 14:-0.9175257731958762 
-0.1565901810526923 -0.06639270081834445 -0.05557868450629546 -0.11357773688213502 -0.4747956940602173 0.2744185531837467 1:1.0 2:0.11111111111111116 3:0.5555555555555556 4:-0.956989247311828 5:-0.8144329896907216 6:1.0 7:0.11111111111111116 8:-0.7849462365591398 9:1.0 10:1.0 11:1.0 12:1.0 13:1.0 14:1.0 
-0.05810459707286413 -0.10823380337264367 -0.0 -0.006606095937157516 -0.0 0.2104261139117856 1:1.0 2:0.5555555555555556 3:1.0 4:-0.8924731182795699 5:1.0 6:-0.8695652173913043 7:-0.4444444444444444 8:-0.8279569892473118 9:1.0 10:1.0 11:1.0 12:1.0 13:1.0 14:-0.979381443298969 
-0.1843627126790025 -0.17608033497736897 -0.0490097137649441 -0.11734888875216948 -0.15334318579886702 -0.24562278160913922 1:1.0 2:0.5555555555555556 3:0.11111111111111116 4:1.0 5:-0.8969072164948454 6:-0.8260869565217391 7:0.11111111111111116 8:-0.978494623655914 9:1.0 10:1.0 11:1.0 12:1.0 13:1.0 14:1.0 
-0.08910143650906098 -0.38792017542437685 -0.10391408669904735 -0.21285002917145207 -0.5646685326083363 -0.2417512134105727 1:1.0 2:0.33333333333333326 3:0.22222222222222232 4:-0.8279569892473118 5:1.0 6:-0.7391304347826086 8:-0.8709677419354839 9:-0.978494623655914 10:1.0 11:1.0 12:1.0 13:1.0 14:1.0 
